digraph Tree {
node [shape=box, style="filled, rounded", color="black", fontname=helvetica] ;
edge [fontname=helvetica] ;
0 [label="T17 <= 25.15\ngini = 0.5\nsamples = 1773\nvalue = [0.498, 0.502]\nclass = Normal Day", fillcolor="#fdfeff"] ;
1 [label="gini = 0.389\nsamples = 886\nvalue = [0.143, 0.051]\nclass = Ozone Day", fillcolor="#eeae80"] ;
0 -> 1 [labeldistance=2.5, labelangle=45, headlabel="True"] ;
2 [label="gini = 0.493\nsamples = 887\nvalue = [0.355, 0.451]\nclass = Normal Day", fillcolor="#d5eaf9"] ;
0 -> 2 [labeldistance=2.5, labelangle=-45, headlabel="False"] ;
}