digraph Tree {
node [shape=box, style="filled, rounded", color="black", fontname=helvetica] ;
edge [fontname=helvetica] ;
0 [label="T70 <= 4.75\ngini = 0.5\nsamples = 1773\nvalue = [0.5, 0.5]\nclass = Ozone Day", fillcolor="#ffffff"] ;
1 [label="gini = 0.392\nsamples = 568\nvalue = [0.052, 0.142]\nclass = Normal Day", fillcolor="#81c1ef"] ;
0 -> 1 [labeldistance=2.5, labelangle=45, headlabel="True"] ;
2 [label="gini = 0.494\nsamples = 1205\nvalue = [0.448, 0.358]\nclass = Ozone Day", fillcolor="#fae6d7"] ;
0 -> 2 [labeldistance=2.5, labelangle=-45, headlabel="False"] ;
}