digraph Tree {
node [shape=box, style="filled, rounded", color="black", fontname=helvetica] ;
edge [fontname=helvetica] ;
0 [label="WSR19 <= 1.95\ngini = 0.5\nsamples = 1773\nvalue = [0.502, 0.498]\nclass = Ozone Day", fillcolor="#fffefe"] ;
1 [label="gini = 0.448\nsamples = 660\nvalue = [0.124, 0.242]\nclass = Normal Day", fillcolor="#9fcff2"] ;
0 -> 1 [labeldistance=2.5, labelangle=45, headlabel="True"] ;
2 [label="gini = 0.482\nsamples = 1113\nvalue = [0.378, 0.256]\nclass = Ozone Day", fillcolor="#f7d6bf"] ;
0 -> 2 [labeldistance=2.5, labelangle=-45, headlabel="False"] ;
}