digraph Tree {
node [shape=box, style="filled, rounded", color="black", fontname=helvetica] ;
edge [fontname=helvetica] ;
0 [label="T0 <= 27.05\ngini = 0.5\nsamples = 1773\nvalue = [0.5, 0.5]\nclass = Ozone Day", fillcolor="#ffffff"] ;
1 [label="gini = 0.493\nsamples = 1541\nvalue = [0.438, 0.347]\nclass = Ozone Day", fillcolor="#fae5d6"] ;
0 -> 1 [labeldistance=2.5, labelangle=45, headlabel="True"] ;
2 [label="gini = 0.41\nsamples = 232\nvalue = [0.062, 0.153]\nclass = Normal Day", fillcolor="#89c5f0"] ;
0 -> 2 [labeldistance=2.5, labelangle=-45, headlabel="False"] ;
}