digraph Tree {
node [shape=box, style="filled, rounded", color="black", fontname=helvetica] ;
edge [fontname=helvetica] ;
0 [label="T20 <= 26.05\ngini = 0.5\nsamples = 1773\nvalue = [0.502, 0.498]\nclass = Ozone Day", fillcolor="#fffefe"] ;
1 [label="gini = 0.474\nsamples = 1199\nvalue = [0.178, 0.284]\nclass = Normal Day", fillcolor="#b5daf5"] ;
0 -> 1 [labeldistance=2.5, labelangle=45, headlabel="True"] ;
2 [label="gini = 0.479\nsamples = 574\nvalue = [0.324, 0.214]\nclass = Ozone Day", fillcolor="#f6d4bc"] ;
0 -> 2 [labeldistance=2.5, labelangle=-45, headlabel="False"] ;
}