digraph Tree {
node [shape=box, style="filled, rounded", color="black", fontname=helvetica] ;
edge [fontname=helvetica] ;
0 [label="Precp <= 0.04\ngini = 0.5\nsamples = 1773\nvalue = [0.499, 0.501]\nclass = Normal Day", fillcolor="#feffff"] ;
1 [label="gini = 0.499\nsamples = 1317\nvalue = [0.446, 0.494]\nclass = Normal Day", fillcolor="#ecf6fc"] ;
0 -> 1 [labeldistance=2.5, labelangle=45, headlabel="True"] ;
2 [label="gini = 0.209\nsamples = 456\nvalue = [0.052, 0.007]\nclass = Ozone Day", fillcolor="#e89254"] ;
0 -> 2 [labeldistance=2.5, labelangle=-45, headlabel="False"] ;
}