digraph Tree {
node [shape=box, style="filled, rounded", color="black", fontname=helvetica] ;
edge [fontname=helvetica] ;
0 [label="T17 <= 30.15\ngini = 0.5\nsamples = 1773\nvalue = [0.501, 0.499]\nclass = Ozone Day", fillcolor="#fffefe"] ;
1 [label="gini = 0.482\nsamples = 1435\nvalue = [0.219, 0.319]\nclass = Normal Day", fillcolor="#c1e0f7"] ;
0 -> 1 [labeldistance=2.5, labelangle=45, headlabel="True"] ;
2 [label="gini = 0.475\nsamples = 338\nvalue = [0.283, 0.179]\nclass = Ozone Day", fillcolor="#f5d1b7"] ;
0 -> 2 [labeldistance=2.5, labelangle=-45, headlabel="False"] ;
}