digraph Tree {
node [shape=box, style="filled, rounded", color="black", fontname=helvetica] ;
edge [fontname=helvetica] ;
0 [label="T_PK <= 33.15\ngini = 0.5\nsamples = 1773\nvalue = [0.501, 0.499]\nclass = Ozone Day", fillcolor="#fffffe"] ;
1 [label="gini = 0.483\nsamples = 1555\nvalue = [0.385, 0.267]\nclass = Ozone Day", fillcolor="#f7d8c2"] ;
0 -> 1 [labeldistance=2.5, labelangle=45, headlabel="True"] ;
2 [label="gini = 0.443\nsamples = 218\nvalue = [0.115, 0.233]\nclass = Normal Day", fillcolor="#9bcef2"] ;
0 -> 2 [labeldistance=2.5, labelangle=-45, headlabel="False"] ;
}