digraph Tree {
node [shape=box, style="filled, rounded", color="black", fontname=helvetica] ;
edge [fontname=helvetica] ;
0 [label="T85 <= 11.35\ngini = 0.5\nsamples = 1773\nvalue = [0.5, 0.5]\nclass = Normal Day", fillcolor="#ffffff"] ;
1 [label="gini = 0.355\nsamples = 511\nvalue = [0.1, 0.03]\nclass = Ozone Day", fillcolor="#eda774"] ;
0 -> 1 [labeldistance=2.5, labelangle=45, headlabel="True"] ;
2 [label="gini = 0.497\nsamples = 1262\nvalue = [0.4, 0.47]\nclass = Normal Day", fillcolor="#e1f0fb"] ;
0 -> 2 [labeldistance=2.5, labelangle=-45, headlabel="False"] ;
}