digraph Tree {
node [shape=box, style="filled, rounded", color="black", fontname=helvetica] ;
edge [fontname=helvetica] ;
0 [label="T5 <= 17.45\ngini = 0.5\nsamples = 1773\nvalue = [0.501, 0.499]\nclass = Ozone Day", fillcolor="#fffefe"] ;
1 [label="gini = 0.385\nsamples = 702\nvalue = [0.057, 0.162]\nclass = Normal Day", fillcolor="#7fbfee"] ;
0 -> 1 [labeldistance=2.5, labelangle=45, headlabel="True"] ;
2 [label="gini = 0.491\nsamples = 1071\nvalue = [0.444, 0.337]\nclass = Ozone Day", fillcolor="#f9e1cf"] ;
0 -> 2 [labeldistance=2.5, labelangle=-45, headlabel="False"] ;
}