digraph Tree {
node [shape=box, style="filled, rounded", color="black", fontname=helvetica] ;
edge [fontname=helvetica] ;
0 [label="WSR15 <= 2.75\ngini = 0.5\nsamples = 1773\nvalue = [0.499, 0.501]\nclass = Normal Day", fillcolor="#feffff"] ;
1 [label="gini = 0.467\nsamples = 596\nvalue = [0.162, 0.274]\nclass = Normal Day", fillcolor="#aed7f4"] ;
0 -> 1 [labeldistance=2.5, labelangle=45, headlabel="True"] ;
2 [label="gini = 0.481\nsamples = 1177\nvalue = [0.337, 0.227]\nclass = Ozone Day", fillcolor="#f6d6be"] ;
0 -> 2 [labeldistance=2.5, labelangle=-45, headlabel="False"] ;
}